encog,BasicNetwork,java,3.4.0,1,1507544956731
[BASIC]
[BASIC:PARAMS]
[BASIC:NETWORK]
beginTraining=0
connectionLimit=0
contextTargetOffset=0,0,0
contextTargetSize=0,0,0
endTraining=2
hasContext=f
inputCount=7
layerCounts=5,6,8
layerFeedCounts=5,5,7
layerContextCount=0,0,0
layerIndex=0,5,11
output=0,0,0,0,0,0,0,0,0,0,1,0,0,0,0,0,0,0,1
outputCount=5
weightIndex=0,30,70
weights=-40.5920708653,-0.1469393523,4.5345694716,-2.7377188736,-0.3146270275,-0.1958309696,-3.0150534236,0.4073751527,-0.2603109555,5.3457243305,-9.8292404581,-0.4712034174,0.7339323789,-29.8027803004,0.2965017049,-18.2562753105,3.6143784785,0.0403016293,5.6794436258,0.8319147252,-1.2948813976,-19.7795645399,-10.5872740931,0.3289277146,0.5443038427,-1.0638538136,-24.6272568912,1.7410713875,8.7486386894,-1.2662636907,68.1716486977,-25.364517754,24.7023453545,-2.3167312657,-1.5081326693,3.0618256249,10.0002368466,-0.8996800443,-0.9659867531,-4.0289965035,-1.6507753302,3.9087418627,14.8674783806,2.1855510349,-1.8475409923,-0.3447063793,1.1819568934,23.8750409361,-2.6460872992,2.7469930571,1.0013531336,-1.9635173059,1.77948232,0.072911963,-67.9557237662,-19.2090983661,-1.3187103765,-1.6432100365,2.0443283046,1.2060518127,-68.0827138447,-0.1306366247,-0.3143296093,2.6015975552,68.286941187,2.1518349675,-1.3254227131,-3.6368953284,0.3024550429,-0.4731107526
biasActivation=0,1,1
[BASIC:ACTIVATION]
"org.encog.engine.network.activation.ActivationSigmoid"
"org.encog.engine.network.activation.ActivationSigmoid"
"org.encog.engine.network.activation.ActivationLinear"
