encog,BasicNetwork,java,3.4.0,1,1507649651369
[BASIC]
[BASIC:PARAMS]
[BASIC:NETWORK]
beginTraining=0
connectionLimit=0
contextTargetOffset=0,0,0
contextTargetSize=0,0,0
endTraining=2
hasContext=f
inputCount=7
layerCounts=5,6,7
layerFeedCounts=5,5,7
layerContextCount=0,0,0
layerIndex=0,5,11
output=0,0,0,0,0,0,0,0,0,0,1,0,0,0,0,0,0,0
outputCount=5
weightIndex=0,30,65
weights=-1.8929464503,3.2172682958,0.8234608126,-3.5348858085,0.3806869355,-1.3172840775,-2.1069440316,-3.590965779,2.3112326844,-0.7081008754,1.7539784741,-1.6364875382,1.4439856591,3.1027896627,-2.8212247675,0.4470231553,-2.2135041754,-2.2740991959,2.74264612,-3.0248687318,1.6843879946,-0.4602274886,-2.6972755604,-1.4627780593,-1.8410009523,-2.5522853897,-4.3583895506,0.9846356685,0.9292077897,1.0043273231,2.6394702197,-0.0126120659,-1.3046211674,-1.4516489527,-2.0974537207,0.1256312703,3.0393821518,-0.1408117855,4.9068276421,-0.8847155403,2.2798028105,-1.2581130704,-4.444309274,1.5625004376,0.4806921482,-0.613420906,-4.9907494711,1.6171160965,2.7842176034,1.4193934179,-0.3283754922,0.3807432847,-1.0846720799,2.2042317975,-1.244541756,0.0130476606,1.4129813887,1.5305479129,-2.4858715222,-0.5984315544,0.542603713,0.2582249165,2.3293092852,-0.1970330989,-2.1311048204
biasActivation=0,1,0
[BASIC:ACTIVATION]
"org.encog.engine.network.activation.ActivationSigmoid"
"org.encog.engine.network.activation.ActivationSigmoid"
"org.encog.engine.network.activation.ActivationLinear"
